digraph Tree {
node [shape=box, style="filled, rounded", color="black", fontname=helvetica] ;
edge [fontname=helvetica] ;
0 [label="Y <= 1.98\ngini = 0.75\nsamples = 100\nvalue = [25, 25, 25, 25]\nclass = Yellow", fillcolor="#e5813900"] ;
1 [label="gini = 0.0\nsamples = 25\nvalue = [0, 0, 25, 0]\nclass = Blue", fillcolor="#399de5ff"] ;
0 -> 1 [labeldistance=2.5, labelangle=45, headlabel="True"] ;
2 [label="X <= 4.046\ngini = 0.667\nsamples = 75\nvalue = [25, 25, 0, 25]\nclass = Yellow", fillcolor="#e5813900"] ;
0 -> 2 [labeldistance=2.5, labelangle=-45, headlabel="False"] ;
3 [label="gini = 0.0\nsamples = 25\nvalue = [0, 25, 0, 0]\nclass = Green", fillcolor="#47e539ff"] ;
2 -> 3 ;
4 [label="Y <= 8.59\ngini = 0.5\nsamples = 50\nvalue = [25, 0, 0, 25]\nclass = Yellow", fillcolor="#e5813900"] ;
2 -> 4 ;
5 [label="gini = 0.0\nsamples = 25\nvalue = [0, 0, 0, 25]\nclass = Purple", fillcolor="#d739e5ff"] ;
4 -> 5 ;
6 [label="gini = 0.0\nsamples = 25\nvalue = [25, 0, 0, 0]\nclass = Yellow", fillcolor="#e58139ff"] ;
4 -> 6 ;
}